digraph Tree {
node [shape=box] ;
0 [label="PastMental_Yes <= 0.5\ngini = 0.3872\nsamples = 381\nvalue = [[281, 100]\n[100, 281]]"] ;
1 [label="InterfereNotTreated_Not applicable to me <= 0.5\ngini = 0.2241\nsamples = 311\nvalue = [[271, 40]\n[40, 271]]"] ;
0 -> 1 [labeldistance=2.5, labelangle=45, headlabel="True"] ;
2 [label="ResourcesBen_I don't know <= 0.5\ngini = 0.5\nsamples = 38\nvalue = [[19, 19]\n[19, 19]]"] ;
1 -> 2 ;
3 [label="DiscMentalSup_No <= 0.5\ngini = 0.4527\nsamples = 26\nvalue = [[17, 9]\n[9, 17]]"] ;
2 -> 3 ;
4 [label="MentalLeave_Very easy <= 0.5\ngini = 0.4898\nsamples = 21\nvalue = [[12, 9]\n[9, 12]]"] ;
3 -> 4 ;
5 [label="MentalInterview_Maybe <= 0.5\ngini = 0.4297\nsamples = 16\nvalue = [[11, 5]\n[5, 11]]"] ;
4 -> 5 ;
6 [label="gini = 0.4898\nsamples = 7\nvalue = [[3, 4]\n[4, 3]]"] ;
5 -> 6 ;
7 [label="gini = 0.1975\nsamples = 9\nvalue = [[8, 1]\n[1, 8]]"] ;
5 -> 7 ;
8 [label="KnowBen_I am not sure <= 0.5\ngini = 0.32\nsamples = 5\nvalue = [[1, 4]\n[4, 1]]"] ;
4 -> 8 ;
9 [label="gini = 0.0\nsamples = 4\nvalue = [[0, 4]\n[4, 0]]"] ;
8 -> 9 ;
10 [label="gini = 0.0\nsamples = 1\nvalue = [[1, 0]\n[0, 1]]"] ;
8 -> 10 ;
11 [label="gini = 0.0\nsamples = 5\nvalue = [[5, 0]\n[0, 5]]"] ;
3 -> 11 ;
12 [label="DiscMentalCo_No <= 0.5\ngini = 0.2778\nsamples = 12\nvalue = [[2, 10]\n[10, 2]]"] ;
2 -> 12 ;
13 [label="MentalLeave_Very easy <= 0.5\ngini = 0.1653\nsamples = 11\nvalue = [[1, 10]\n[10, 1]]"] ;
12 -> 13 ;
14 [label="gini = 0.0\nsamples = 10\nvalue = [[0, 10]\n[10, 0]]"] ;
13 -> 14 ;
15 [label="gini = 0.0\nsamples = 1\nvalue = [[1, 0]\n[0, 1]]"] ;
13 -> 15 ;
16 [label="gini = 0.0\nsamples = 1\nvalue = [[1, 0]\n[0, 1]]"] ;
12 -> 16 ;
17 [label="PastMental_Maybe <= 0.5\ngini = 0.142\nsamples = 273\nvalue = [[252, 21]\n[21, 252]]"] ;
1 -> 17 ;
18 [label="InterfereTreated_Sometimes <= 0.5\ngini = 0.0932\nsamples = 245\nvalue = [[233, 12]\n[12, 233]]"] ;
17 -> 18 ;
19 [label="MentalLeave_Very difficult <= 0.5\ngini = 0.0789\nsamples = 243\nvalue = [[233, 10]\n[10, 233]]"] ;
18 -> 19 ;
20 [label="Remote_Never <= 0.5\ngini = 0.0588\nsamples = 231\nvalue = [[224, 7]\n[7, 224]]"] ;
19 -> 20 ;
21 [label="gini = 0.0229\nsamples = 173\nvalue = [[171, 2]\n[2, 171]]"] ;
20 -> 21 ;
22 [label="gini = 0.1576\nsamples = 58\nvalue = [[53, 5]\n[5, 53]]"] ;
20 -> 22 ;
23 [label="NegMental_Yes, I think they would <= 0.5\ngini = 0.375\nsamples = 12\nvalue = [[9, 3]\n[3, 9]]"] ;
19 -> 23 ;
24 [label="gini = 0.48\nsamples = 5\nvalue = [[2, 3]\n[3, 2]]"] ;
23 -> 24 ;
25 [label="gini = 0.0\nsamples = 7\nvalue = [[7, 0]\n[0, 7]]"] ;
23 -> 25 ;
26 [label="gini = 0.0\nsamples = 2\nvalue = [[0, 2]\n[2, 0]]"] ;
18 -> 26 ;
27 [label="FamHistory_No <= 0.5\ngini = 0.4362\nsamples = 28\nvalue = [[19, 9]\n[9, 19]]"] ;
17 -> 27 ;
28 [label="Age <= 28.5\ngini = 0.497\nsamples = 13\nvalue = [[6, 7]\n[7, 6]]"] ;
27 -> 28 ;
29 [label="gini = 0.0\nsamples = 4\nvalue = [[4, 0]\n[0, 4]]"] ;
28 -> 29 ;
30 [label="IdentifyMental_Yes, I think it would <= 0.5\ngini = 0.3457\nsamples = 9\nvalue = [[2, 7]\n[7, 2]]"] ;
28 -> 30 ;
31 [label="gini = 0.0\nsamples = 5\nvalue = [[0, 5]\n[5, 0]]"] ;
30 -> 31 ;
32 [label="gini = 0.5\nsamples = 4\nvalue = [[2, 2]\n[2, 2]]"] ;
30 -> 32 ;
33 [label="Age <= 24.5\ngini = 0.2311\nsamples = 15\nvalue = [[13, 2]\n[2, 13]]"] ;
27 -> 33 ;
34 [label="gini = 0.0\nsamples = 1\nvalue = [[0, 1]\n[1, 0]]"] ;
33 -> 34 ;
35 [label="Age <= 42.0\ngini = 0.1327\nsamples = 14\nvalue = [[13, 1]\n[1, 13]]"] ;
33 -> 35 ;
36 [label="gini = 0.0\nsamples = 13\nvalue = [[13, 0]\n[0, 13]]"] ;
35 -> 36 ;
37 [label="gini = 0.0\nsamples = 1\nvalue = [[0, 1]\n[1, 0]]"] ;
35 -> 37 ;
38 [label="Diagnosed_No <= 0.5\ngini = 0.2449\nsamples = 70\nvalue = [[10, 60]\n[60, 10]]"] ;
0 -> 38 [labeldistance=2.5, labelangle=-45, headlabel="False"] ;
39 [label="FamMental_Neutral <= 0.5\ngini = 0.168\nsamples = 54\nvalue = [[5, 49]\n[49, 5]]"] ;
38 -> 39 ;
40 [label="NumEmp_6-25 <= 0.5\ngini = 0.115\nsamples = 49\nvalue = [[3, 46]\n[46, 3]]"] ;
39 -> 40 ;
41 [label="NumEmp_1-5 <= 0.5\ngini = 0.0476\nsamples = 41\nvalue = [[1, 40]\n[40, 1]]"] ;
40 -> 41 ;
42 [label="gini = 0.0\nsamples = 37\nvalue = [[0, 37]\n[37, 0]]"] ;
41 -> 42 ;
43 [label="MentalLeave_Very difficult <= 0.5\ngini = 0.375\nsamples = 4\nvalue = [[1, 3]\n[3, 1]]"] ;
41 -> 43 ;
44 [label="gini = 0.0\nsamples = 3\nvalue = [[0, 3]\n[3, 0]]"] ;
43 -> 44 ;
45 [label="gini = 0.0\nsamples = 1\nvalue = [[1, 0]\n[0, 1]]"] ;
43 -> 45 ;
46 [label="MentalInterview_No <= 0.5\ngini = 0.375\nsamples = 8\nvalue = [[2, 6]\n[6, 2]]"] ;
40 -> 46 ;
47 [label="MentalLeave_Very easy <= 0.5\ngini = 0.4444\nsamples = 3\nvalue = [[2, 1]\n[1, 2]]"] ;
46 -> 47 ;
48 [label="gini = 0.0\nsamples = 2\nvalue = [[2, 0]\n[0, 2]]"] ;
47 -> 48 ;
49 [label="gini = 0.0\nsamples = 1\nvalue = [[0, 1]\n[1, 0]]"] ;
47 -> 49 ;
50 [label="gini = 0.0\nsamples = 5\nvalue = [[0, 5]\n[5, 0]]"] ;
46 -> 50 ;
51 [label="DiscussedBen_No <= 0.5\ngini = 0.48\nsamples = 5\nvalue = [[2, 3]\n[3, 2]]"] ;
39 -> 51 ;
52 [label="gini = 0.0\nsamples = 3\nvalue = [[0, 3]\n[3, 0]]"] ;
51 -> 52 ;
53 [label="gini = 0.0\nsamples = 2\nvalue = [[2, 0]\n[0, 2]]"] ;
51 -> 53 ;
54 [label="MentalLeave_Somewhat difficult <= 0.5\ngini = 0.4297\nsamples = 16\nvalue = [[5, 11]\n[11, 5]]"] ;
38 -> 54 ;
55 [label="NumEmp_100-500 <= 0.5\ngini = 0.3367\nsamples = 14\nvalue = [[3, 11]\n[11, 3]]"] ;
54 -> 55 ;
56 [label="MentalLeave_Somewhat easy <= 0.5\ngini = 0.1653\nsamples = 11\nvalue = [[1, 10]\n[10, 1]]"] ;
55 -> 56 ;
57 [label="gini = 0.0\nsamples = 9\nvalue = [[0, 9]\n[9, 0]]"] ;
56 -> 57 ;
58 [label="MentalSeriously_Yes <= 0.5\ngini = 0.5\nsamples = 2\nvalue = [[1, 1]\n[1, 1]]"] ;
56 -> 58 ;
59 [label="gini = 0.0\nsamples = 1\nvalue = [[0, 1]\n[1, 0]]"] ;
58 -> 59 ;
60 [label="gini = 0.0\nsamples = 1\nvalue = [[1, 0]\n[0, 1]]"] ;
58 -> 60 ;
61 [label="Benefits_No <= 0.5\ngini = 0.4444\nsamples = 3\nvalue = [[2, 1]\n[1, 2]]"] ;
55 -> 61 ;
62 [label="gini = 0.0\nsamples = 2\nvalue = [[2, 0]\n[0, 2]]"] ;
61 -> 62 ;
63 [label="gini = 0.0\nsamples = 1\nvalue = [[0, 1]\n[1, 0]]"] ;
61 -> 63 ;
64 [label="gini = 0.0\nsamples = 2\nvalue = [[2, 0]\n[0, 2]]"] ;
54 -> 64 ;
}